<?xml version="1.0"?>
<opencv_storage>
<cascade>
  <stageType>BOOST</stageType>
  <featureType>HAAR</featureType>
  <height>24</height>
  <width>36</width>
  <stageParams>
    <boostType>GAB</boostType>
    <minHitRate>9.9500000476837158e-01</minHitRate>
    <maxFalseAlarm>5.0000000000000000e-01</maxFalseAlarm>
    <weightTrimRate>9.4999998807907104e-01</weightTrimRate>
    <maxDepth>1</maxDepth>
    <maxWeakCount>100</maxWeakCount></stageParams>
  <featureParams>
    <maxCatCount>0</maxCatCount>
    <featSize>1</featSize>
    <mode>BASIC</mode></featureParams>
  <stageNum>20</stageNum>
  <stages>
    <!-- stage 0 -->
    <_>
      <maxWeakCount>2</maxWeakCount>
      <stageThreshold>-1.4351981878280640e-01</stageThreshold>
      <weakClassifiers>
        <_>
          <internalNodes>
            0 -1 7 -4.3986245989799500e-02</internalNodes>
          <leafValues>
            1. -8.5714286565780640e-01</leafValues></_>
        <_>
          <internalNodes>
            0 -1 17 -2.2309072315692902e-02</internalNodes>
          <leafValues>
            7.1362304687500000e-01 -9.3888098001480103e-01</leafValues></_></weakClassifiers></_>
    <!-- stage 1 -->
    <_>
      <maxWeakCount>3</maxWeakCount>
      <stageThreshold>-8.8063919544219971e-01</stageThreshold>
      <weakClassifiers>
        <_>
          <internalNodes>
            0 -1 16 -1.6819825768470764e-01</internalNodes>
          <leafValues>
            9.4999998807907104e-01 -8.5507243871688843e-01</leafValues></_>
        <_>
          <internalNodes>
            0 -1 30 2.5098542682826519e-03</internalNodes>
          <leafValues>
            -7.5305658578872681e-01 8.3036303520202637e-01</leafValues></_>
        <_>
          <internalNodes>
            0 -1 11 -9.7769759595394135e-03</internalNodes>
          <leafValues>
            -9.3521738052368164e-01 7.2748982906341553e-01</leafValues></_></weakClassifiers></_>
    <!-- stage 2 -->
    <_>
      <maxWeakCount>3</maxWeakCount>
      <stageThreshold>-8.0232489109039307e-01</stageThreshold>
      <weakClassifiers>
        <_>
          <internalNodes>
            0 -1 20 -2.0503942668437958e-01</internalNodes>
          <leafValues>
            1. -8.8405799865722656e-01</leafValues></_>
        <_>
          <internalNodes>
            0 -1 33 6.5052527934312820e-03</internalNodes>
          <leafValues>
            -8.0362772941589355e-01 8.9152044057846069e-01</leafValues></_>
        <_>
          <internalNodes>
            0 -1 8 -5.2884742617607117e-03</internalNodes>
          <leafValues>
            -8.0978739261627197e-01 8.9713662862777710e-01</leafValues></_></weakClassifiers></_>
    <!-- stage 3 -->
    <_>
      <maxWeakCount>2</maxWeakCount>
      <stageThreshold>-3.0956456065177917e-01</stageThreshold>
      <weakClassifiers>
        <_>
          <internalNodes>
            0 -1 2 -3.3615618944168091e-01</internalNodes>
          <leafValues>
            1. -8.5714286565780640e-01</leafValues></_>
        <_>
          <internalNodes>
            0 -1 6 3.4591488074511290e-03</internalNodes>
          <leafValues>
            5.4757827520370483e-01 -1.</leafValues></_></weakClassifiers></_>
    <!-- stage 4 -->
    <_>
      <maxWeakCount>3</maxWeakCount>
      <stageThreshold>-6.4237922430038452e-01</stageThreshold>
      <weakClassifiers>
        <_>
          <internalNodes>
            0 -1 22 -2.1697074174880981e-01</internalNodes>
          <leafValues>
            1. -8.3098590373992920e-01</leafValues></_>
        <_>
          <internalNodes>
            0 -1 44 -5.8522298932075500e-02</internalNodes>
          <leafValues>
            9.2016392946243286e-01 -6.0292363166809082e-01</leafValues></_>
        <_>
          <internalNodes>
            0 -1 23 2.1272748708724976e-02</internalNodes>
          <leafValues>
            -6.5282577276229858e-01 7.9153031110763550e-01</leafValues></_></weakClassifiers></_>
    <!-- stage 5 -->
    <_>
      <maxWeakCount>3</maxWeakCount>
      <stageThreshold>-9.4065862894058228e-01</stageThreshold>
      <weakClassifiers>
        <_>
          <internalNodes>
            0 -1 18 -1.9839340448379517e-01</internalNodes>
          <leafValues>
            1. -8.8405799865722656e-01</leafValues></_>
        <_>
          <internalNodes>
            0 -1 25 -7.3085933923721313e-02</internalNodes>
          <leafValues>
            8.3562463521957397e-01 -6.1822628974914551e-01</leafValues></_>
        <_>
          <internalNodes>
            0 -1 15 4.2745498940348625e-03</internalNodes>
          <leafValues>
            5.6162559986114502e-01 -1.</leafValues></_></weakClassifiers></_>
    <!-- stage 6 -->
    <_>
      <maxWeakCount>2</maxWeakCount>
      <stageThreshold>-7.7686056494712830e-02</stageThreshold>
      <weakClassifiers>
        <_>
          <internalNodes>
            0 -1 28 -3.5434117913246155e-01</internalNodes>
          <leafValues>
            9.4285714626312256e-01 -7.2972971200942993e-01</leafValues></_>
        <_>
          <internalNodes>
            0 -1 5 2.6862258091568947e-03</internalNodes>
          <leafValues>
            6.5204364061355591e-01 -8.6388665437698364e-01</leafValues></_></weakClassifiers></_>
    <!-- stage 7 -->
    <_>
      <maxWeakCount>2</maxWeakCount>
      <stageThreshold>-3.9046648144721985e-01</stageThreshold>
      <weakClassifiers>
        <_>
          <internalNodes>
            0 -1 3 -2.6727712154388428e-01</internalNodes>
          <leafValues>
            7.2727274894714355e-01 -8.1538462638854980e-01</leafValues></_>
        <_>
          <internalNodes>
            0 -1 31 -1.4301904593594372e-04</internalNodes>
          <leafValues>
            -9.6327626705169678e-01 4.2491814494132996e-01</leafValues></_></weakClassifiers></_>
    <!-- stage 8 -->
    <_>
      <maxWeakCount>2</maxWeakCount>
      <stageThreshold>-2.8844431042671204e-01</stageThreshold>
      <weakClassifiers>
        <_>
          <internalNodes>
            0 -1 32 -5.6289941072463989e-02</internalNodes>
          <leafValues>
            8.3783781528472900e-01 -7.2222220897674561e-01</leafValues></_>
        <_>
          <internalNodes>
            0 -1 4 1.0251950006932020e-03</internalNodes>
          <leafValues>
            4.3377792835235596e-01 -9.2881852388381958e-01</leafValues></_></weakClassifiers></_>
    <!-- stage 9 -->
    <_>
      <maxWeakCount>2</maxWeakCount>
      <stageThreshold>-3.5703998804092407e-01</stageThreshold>
      <weakClassifiers>
        <_>
          <internalNodes>
            0 -1 29 6.4818412065505981e-02</internalNodes>
          <leafValues>
            -8.1250000000000000e-01 6.8888890743255615e-01</leafValues></_>
        <_>
          <internalNodes>
            0 -1 31 9.6628253231756389e-05</internalNodes>
          <leafValues>
            4.5546001195907593e-01 -1.</leafValues></_></weakClassifiers></_>
    <!-- stage 10 -->
    <_>
      <maxWeakCount>2</maxWeakCount>
      <stageThreshold>-1.9934095442295074e-01</stageThreshold>
      <weakClassifiers>
        <_>
          <internalNodes>
            0 -1 27 -4.1948920488357544e-01</internalNodes>
          <leafValues>
            8.7500000000000000e-01 -6.3636362552642822e-01</leafValues></_>
        <_>
          <internalNodes>
            0 -1 35 -1.2652014847844839e-03</internalNodes>
          <leafValues>
            -9.6445441246032715e-01 4.3702268600463867e-01</leafValues></_></weakClassifiers></_>
    <!-- stage 11 -->
    <_>
      <maxWeakCount>3</maxWeakCount>
      <stageThreshold>7.6921440660953522e-02</stageThreshold>
      <weakClassifiers>
        <_>
          <internalNodes>
            0 -1 36 1.8148881196975708e-01</internalNodes>
          <leafValues>
            -8.3050847053527832e-01 5.6000000238418579e-01</leafValues></_>
        <_>
          <internalNodes>
            0 -1 37 5.5203767260536551e-04</internalNodes>
          <leafValues>
            4.4806757569313049e-01 -8.9387720823287964e-01</leafValues></_>
        <_>
          <internalNodes>
            0 -1 10 -4.9005281180143356e-03</internalNodes>
          <leafValues>
            -8.8078945875167847e-01 4.5936232805252075e-01</leafValues></_></weakClassifiers></_>
    <!-- stage 12 -->
    <_>
      <maxWeakCount>2</maxWeakCount>
      <stageThreshold>-2.3799185454845428e-01</stageThreshold>
      <weakClassifiers>
        <_>
          <internalNodes>
            0 -1 26 -3.4784430265426636e-01</internalNodes>
          <leafValues>
            7.8378379344940186e-01 -6.9444441795349121e-01</leafValues></_>
        <_>
          <internalNodes>
            0 -1 34 6.8670045584440231e-04</internalNodes>
          <leafValues>
            4.5645257830619812e-01 -9.6487289667129517e-01</leafValues></_></weakClassifiers></_>
    <!-- stage 13 -->
    <_>
      <maxWeakCount>2</maxWeakCount>
      <stageThreshold>-2.3565526306629181e-01</stageThreshold>
      <weakClassifiers>
        <_>
          <internalNodes>
            0 -1 24 1.4756698906421661e-01</internalNodes>
          <leafValues>
            -7.3134326934814453e-01 6.6666668653488159e-01</leafValues></_>
        <_>
          <internalNodes>
            0 -1 43 -1.0786704660858959e-04</internalNodes>
          <leafValues>
            -9.0232193470001221e-01 5.0513392686843872e-01</leafValues></_></weakClassifiers></_>
    <!-- stage 14 -->
    <_>
      <maxWeakCount>3</maxWeakCount>
      <stageThreshold>-1.0926944017410278e+00</stageThreshold>
      <weakClassifiers>
        <_>
          <internalNodes>
            0 -1 12 2.5151888257823884e-04</internalNodes>
          <leafValues>
            3.1250000000000000e-01 -9.1111111640930176e-01</leafValues></_>
        <_>
          <internalNodes>
            0 -1 19 -6.3051044940948486e-02</internalNodes>
          <leafValues>
            7.0105803012847900e-01 -6.0596561431884766e-01</leafValues></_>
        <_>
          <internalNodes>
            0 -1 47 -6.7685946123674512e-04</internalNodes>
          <leafValues>
            -1. 4.2438229918479919e-01</leafValues></_></weakClassifiers></_>
    <!-- stage 15 -->
    <_>
      <maxWeakCount>3</maxWeakCount>
      <stageThreshold>-1.0362318903207779e-01</stageThreshold>
      <weakClassifiers>
        <_>
          <internalNodes>
            0 -1 39 1.5780520439147949e-01</internalNodes>
          <leafValues>
            -7.8947371244430542e-01 4.6153846383094788e-01</leafValues></_>
        <_>
          <internalNodes>
            0 -1 38 -2.2298182011581957e-04</internalNodes>
          <leafValues>
            -9.5435440540313721e-01 3.3055227994918823e-01</leafValues></_>
        <_>
          <internalNodes>
            0 -1 13 -9.9621957633644342e-04</internalNodes>
          <leafValues>
            -8.9571392536163330e-01 4.0345796942710876e-01</leafValues></_></weakClassifiers></_>
    <!-- stage 16 -->
    <_>
      <maxWeakCount>3</maxWeakCount>
      <stageThreshold>-1.5920853614807129e-01</stageThreshold>
      <weakClassifiers>
        <_>
          <internalNodes>
            0 -1 45 2.6237324345856905e-04</internalNodes>
          <leafValues>
            3.0303031206130981e-01 -9.5348834991455078e-01</leafValues></_>
        <_>
          <internalNodes>
            0 -1 1 4.7649545595049858e-03</internalNodes>
          <leafValues>
            3.7032821774482727e-01 -9.5471614599227905e-01</leafValues></_>
        <_>
          <internalNodes>
            0 -1 41 5.1167380297556520e-04</internalNodes>
          <leafValues>
            5.4068958759307861e-01 -8.3256703615188599e-01</leafValues></_></weakClassifiers></_>
    <!-- stage 17 -->
    <_>
      <maxWeakCount>3</maxWeakCount>
      <stageThreshold>-1.2864869832992554e-01</stageThreshold>
      <weakClassifiers>
        <_>
          <internalNodes>
            0 -1 14 4.4453083537518978e-03</internalNodes>
          <leafValues>
            3.4375000000000000e-01 -9.5555555820465088e-01</leafValues></_>
        <_>
          <internalNodes>
            0 -1 0 6.3251969404518604e-03</internalNodes>
          <leafValues>
            3.8774558901786804e-01 -9.1653007268905640e-01</leafValues></_>
        <_>
          <internalNodes>
            0 -1 46 7.4359076097607613e-04</internalNodes>
          <leafValues>
            4.8507088422775269e-01 -8.6014431715011597e-01</leafValues></_></weakClassifiers></_>
    <!-- stage 18 -->
    <_>
      <maxWeakCount>2</maxWeakCount>
      <stageThreshold>-9.5580175518989563e-02</stageThreshold>
      <weakClassifiers>
        <_>
          <internalNodes>
            0 -1 21 -2.9006872326135635e-02</internalNodes>
          <leafValues>
            8.7500000000000000e-01 -6.3636362552642822e-01</leafValues></_>
        <_>
          <internalNodes>
            0 -1 40 2.2904151119291782e-03</internalNodes>
          <leafValues>
            5.4078346490859985e-01 -8.3198428153991699e-01</leafValues></_></weakClassifiers></_>
    <!-- stage 19 -->
    <_>
      <maxWeakCount>2</maxWeakCount>
      <stageThreshold>-2.1543946862220764e-01</stageThreshold>
      <weakClassifiers>
        <_>
          <internalNodes>
            0 -1 9 -1.0308773815631866e-01</internalNodes>
          <leafValues>
            7.5000000000000000e-01 -5.8441555500030518e-01</leafValues></_>
        <_>
          <internalNodes>
            0 -1 42 -1.2918293941766024e-04</internalNodes>
          <leafValues>
            -9.6543949842453003e-01 4.5297229290008545e-01</leafValues></_></weakClassifiers></_></stages>
  <features>
    <_>
      <rects>
        <_>
          0 0 27 2 -1.</_>
        <_>
          9 0 9 2 3.</_></rects>
      <tilted>0</tilted></_>
    <_>
      <rects>
        <_>
          0 1 3 21 -1.</_>
        <_>
          0 8 3 7 3.</_></rects>
      <tilted>0</tilted></_>
    <_>
      <rects>
        <_>
          0 5 36 12 -1.</_>
        <_>
          12 5 12 12 3.</_></rects>
      <tilted>0</tilted></_>
    <_>
      <rects>
        <_>
          0 8 36 9 -1.</_>
        <_>
          12 8 12 9 3.</_></rects>
      <tilted>0</tilted></_>
    <_>
      <rects>
        <_>
          0 9 16 3 -1.</_>
        <_>
          0 10 16 1 3.</_></rects>
      <tilted>0</tilted></_>
    <_>
      <rects>
        <_>
          0 10 3 10 -1.</_>
        <_>
          0 15 3 5 2.</_></rects>
      <tilted>0</tilted></_>
    <_>
      <rects>
        <_>
          1 0 1 24 -1.</_>
        <_>
          1 8 1 8 3.</_></rects>
      <tilted>0</tilted></_>
    <_>
      <rects>
        <_>
          1 8 33 2 -1.</_>
        <_>
          12 8 11 2 3.</_></rects>
      <tilted>0</tilted></_>
    <_>
      <rects>
        <_>
          1 22 34 2 -1.</_>
        <_>
          18 22 17 2 2.</_></rects>
      <tilted>0</tilted></_>
    <_>
      <rects>
        <_>
          2 2 12 17 -1.</_>
        <_>
          8 2 6 17 2.</_></rects>
      <tilted>0</tilted></_>
    <_>
      <rects>
        <_>
          3 1 2 14 -1.</_>
        <_>
          3 8 2 7 2.</_></rects>
      <tilted>0</tilted></_>
    <_>
      <rects>
        <_>
          3 1 33 2 -1.</_>
        <_>
          14 1 11 2 3.</_></rects>
      <tilted>0</tilted></_>
    <_>
      <rects>
        <_>
          3 2 3 2 -1.</_>
        <_>
          3 3 3 1 2.</_></rects>
      <tilted>0</tilted></_>
    <_>
      <rects>
        <_>
          3 3 12 1 -1.</_>
        <_>
          9 3 6 1 2.</_></rects>
      <tilted>0</tilted></_>
    <_>
      <rects>
        <_>
          3 23 27 1 -1.</_>
        <_>
          12 23 9 1 3.</_></rects>
      <tilted>0</tilted></_>
    <_>
      <rects>
        <_>
          4 0 30 2 -1.</_>
        <_>
          14 0 10 2 3.</_></rects>
      <tilted>0</tilted></_>
    <_>
      <rects>
        <_>
          4 2 20 18 -1.</_>
        <_>
          4 8 20 6 3.</_></rects>
      <tilted>0</tilted></_>
    <_>
      <rects>
        <_>
          4 5 16 9 -1.</_>
        <_>
          12 5 8 9 2.</_></rects>
      <tilted>0</tilted></_>
    <_>
      <rects>
        <_>
          4 5 30 14 -1.</_>
        <_>
          14 5 10 14 3.</_></rects>
      <tilted>0</tilted></_>
    <_>
      <rects>
        <_>
          6 2 14 8 -1.</_>
        <_>
          6 6 14 4 2.</_></rects>
      <tilted>0</tilted></_>
    <_>
      <rects>
        <_>
          6 2 21 21 -1.</_>
        <_>
          6 9 21 7 3.</_></rects>
      <tilted>0</tilted></_>
    <_>
      <rects>
        <_>
          6 3 6 20 -1.</_>
        <_>
          9 3 3 20 2.</_></rects>
      <tilted>0</tilted></_>
    <_>
      <rects>
        <_>
          6 4 25 18 -1.</_>
        <_>
          6 10 25 6 3.</_></rects>
      <tilted>0</tilted></_>
    <_>
      <rects>
        <_>
          6 14 25 9 -1.</_>
        <_>
          6 17 25 3 3.</_></rects>
      <tilted>0</tilted></_>
    <_>
      <rects>
        <_>
          7 12 21 10 -1.</_>
        <_>
          7 17 21 5 2.</_></rects>
      <tilted>0</tilted></_>
    <_>
      <rects>
        <_>
          8 8 27 7 -1.</_>
        <_>
          17 8 9 7 3.</_></rects>
      <tilted>0</tilted></_>
    <_>
      <rects>
        <_>
          9 0 18 21 -1.</_>
        <_>
          9 7 18 7 3.</_></rects>
      <tilted>0</tilted></_>
    <_>
      <rects>
        <_>
          9 0 20 21 -1.</_>
        <_>
          9 7 20 7 3.</_></rects>
      <tilted>0</tilted></_>
    <_>
      <rects>
        <_>
          10 0 14 24 -1.</_>
        <_>
          10 8 14 8 3.</_></rects>
      <tilted>0</tilted></_>
    <_>
      <rects>
        <_>
          10 13 13 8 -1.</_>
        <_>
          10 17 13 4 2.</_></rects>
      <tilted>0</tilted></_>
    <_>
      <rects>
        <_>
          10 16 14 2 -1.</_>
        <_>
          10 17 14 1 2.</_></rects>
      <tilted>0</tilted></_>
    <_>
      <rects>
        <_>
          12 12 2 1 -1.</_>
        <_>
          13 12 1 1 2.</_></rects>
      <tilted>0</tilted></_>
    <_>
      <rects>
        <_>
          13 1 7 10 -1.</_>
        <_>
          13 6 7 5 2.</_></rects>
      <tilted>0</tilted></_>
    <_>
      <rects>
        <_>
          13 7 20 2 -1.</_>
        <_>
          23 7 10 2 2.</_></rects>
      <tilted>0</tilted></_>
    <_>
      <rects>
        <_>
          13 10 6 5 -1.</_>
        <_>
          15 10 2 5 3.</_></rects>
      <tilted>0</tilted></_>
    <_>
      <rects>
        <_>
          13 11 4 3 -1.</_>
        <_>
          15 11 2 3 2.</_></rects>
      <tilted>0</tilted></_>
    <_>
      <rects>
        <_>
          14 4 22 14 -1.</_>
        <_>
          25 4 11 14 2.</_></rects>
      <tilted>0</tilted></_>
    <_>
      <rects>
        <_>
          14 5 6 6 -1.</_>
        <_>
          16 5 2 6 3.</_></rects>
      <tilted>0</tilted></_>
    <_>
      <rects>
        <_>
          14 10 3 2 -1.</_>
        <_>
          15 10 1 2 3.</_></rects>
      <tilted>0</tilted></_>
    <_>
      <rects>
        <_>
          15 6 20 18 -1.</_>
        <_>
          25 6 10 18 2.</_></rects>
      <tilted>0</tilted></_>
    <_>
      <rects>
        <_>
          15 9 10 2 -1.</_>
        <_>
          20 9 5 2 2.</_></rects>
      <tilted>0</tilted></_>
    <_>
      <rects>
        <_>
          17 8 6 1 -1.</_>
        <_>
          20 8 3 1 2.</_></rects>
      <tilted>0</tilted></_>
    <_>
      <rects>
        <_>
          17 11 2 2 -1.</_>
        <_>
          17 11 1 1 2.</_>
        <_>
          18 12 1 1 2.</_></rects>
      <tilted>0</tilted></_>
    <_>
      <rects>
        <_>
          19 9 2 2 -1.</_>
        <_>
          19 10 2 1 2.</_></rects>
      <tilted>0</tilted></_>
    <_>
      <rects>
        <_>
          21 3 8 15 -1.</_>
        <_>
          21 8 8 5 3.</_></rects>
      <tilted>0</tilted></_>
    <_>
      <rects>
        <_>
          33 0 1 4 -1.</_>
        <_>
          33 2 1 2 2.</_></rects>
      <tilted>0</tilted></_>
    <_>
      <rects>
        <_>
          34 2 1 18 -1.</_>
        <_>
          34 8 1 6 3.</_></rects>
      <tilted>0</tilted></_>
    <_>
      <rects>
        <_>
          34 5 2 16 -1.</_>
        <_>
          35 5 1 16 2.</_></rects>
      <tilted>0</tilted></_></features></cascade>
</opencv_storage>
